digraph Tree {
node [shape=box] ;
0 [label="F <= 0.5\nentropy = 0.91\nsamples = 200\nvalue = [135, 65]"] ;
1 [label="M4 <= 0.5\nentropy = 0.639\nsamples = 142\nvalue = [119, 23]"] ;
0 -> 1 [labeldistance=2.5, labelangle=45, headlabel="True"] ;
2 [label="P1 <= 0.5\nentropy = 0.216\nsamples = 58\nvalue = [56, 2]"] ;
1 -> 2 ;
3 [label="entropy = 0.0\nsamples = 41\nvalue = [41, 0]"] ;
2 -> 3 ;
4 [label="M1 <= 0.5\nentropy = 0.523\nsamples = 17\nvalue = [15, 2]"] ;
2 -> 4 ;
5 [label="entropy = 0.0\nsamples = 8\nvalue = [8, 0]"] ;
4 -> 5 ;
6 [label="P3 <= 0.5\nentropy = 0.764\nsamples = 9\nvalue = [7, 2]"] ;
4 -> 6 ;
7 [label="entropy = 0.0\nsamples = 5\nvalue = [5, 0]"] ;
6 -> 7 ;
8 [label="M2 <= 0.5\nentropy = 1.0\nsamples = 4\nvalue = [2, 2]"] ;
6 -> 8 ;
9 [label="entropy = 0.0\nsamples = 1\nvalue = [1, 0]"] ;
8 -> 9 ;
10 [label="entropy = 0.918\nsamples = 3\nvalue = [1, 2]"] ;
8 -> 10 ;
11 [label="M2 <= 0.5\nentropy = 0.811\nsamples = 84\nvalue = [63, 21]"] ;
1 -> 11 ;
12 [label="M5 <= 0.5\nentropy = 0.384\nsamples = 40\nvalue = [37, 3]"] ;
11 -> 12 ;
13 [label="M3 <= 0.5\nentropy = 0.211\nsamples = 30\nvalue = [29, 1]"] ;
12 -> 13 ;
14 [label="entropy = 0.0\nsamples = 22\nvalue = [22, 0]"] ;
13 -> 14 ;
15 [label="P1 <= 0.5\nentropy = 0.544\nsamples = 8\nvalue = [7, 1]"] ;
13 -> 15 ;
16 [label="entropy = 0.0\nsamples = 3\nvalue = [3, 0]"] ;
15 -> 16 ;
17 [label="entropy = 0.722\nsamples = 5\nvalue = [4, 1]"] ;
15 -> 17 ;
18 [label="P3 <= 0.5\nentropy = 0.722\nsamples = 10\nvalue = [8, 2]"] ;
12 -> 18 ;
19 [label="entropy = 0.0\nsamples = 6\nvalue = [6, 0]"] ;
18 -> 19 ;
20 [label="M3 <= 0.5\nentropy = 1.0\nsamples = 4\nvalue = [2, 2]"] ;
18 -> 20 ;
21 [label="entropy = 0.918\nsamples = 3\nvalue = [2, 1]"] ;
20 -> 21 ;
22 [label="entropy = 0.0\nsamples = 1\nvalue = [0, 1]"] ;
20 -> 22 ;
23 [label="M5 <= 0.5\nentropy = 0.976\nsamples = 44\nvalue = [26, 18]"] ;
11 -> 23 ;
24 [label="M3 <= 0.5\nentropy = 0.9\nsamples = 38\nvalue = [26, 12]"] ;
23 -> 24 ;
25 [label="P2 <= 0.5\nentropy = 0.439\nsamples = 22\nvalue = [20, 2]"] ;
24 -> 25 ;
26 [label="entropy = 0.276\nsamples = 21\nvalue = [20, 1]"] ;
25 -> 26 ;
27 [label="entropy = 0.0\nsamples = 1\nvalue = [0, 1]"] ;
25 -> 27 ;
28 [label="M1 <= 0.5\nentropy = 0.954\nsamples = 16\nvalue = [6, 10]"] ;
24 -> 28 ;
29 [label="entropy = 0.65\nsamples = 6\nvalue = [5, 1]"] ;
28 -> 29 ;
30 [label="entropy = 0.469\nsamples = 10\nvalue = [1, 9]"] ;
28 -> 30 ;
31 [label="entropy = 0.0\nsamples = 6\nvalue = [0, 6]"] ;
23 -> 31 ;
32 [label="M2 <= 0.5\nentropy = 0.85\nsamples = 58\nvalue = [16, 42]"] ;
0 -> 32 [labeldistance=2.5, labelangle=-45, headlabel="False"] ;
33 [label="M4 <= 0.5\nentropy = 0.996\nsamples = 28\nvalue = [13, 15]"] ;
32 -> 33 ;
34 [label="M5 <= 0.5\nentropy = 0.592\nsamples = 7\nvalue = [6, 1]"] ;
33 -> 34 ;
35 [label="entropy = 0.0\nsamples = 5\nvalue = [5, 0]"] ;
34 -> 35 ;
36 [label="P3 <= 0.5\nentropy = 1.0\nsamples = 2\nvalue = [1, 1]"] ;
34 -> 36 ;
37 [label="entropy = 0.0\nsamples = 1\nvalue = [1, 0]"] ;
36 -> 37 ;
38 [label="entropy = 0.0\nsamples = 1\nvalue = [0, 1]"] ;
36 -> 38 ;
39 [label="P2 <= 0.5\nentropy = 0.918\nsamples = 21\nvalue = [7, 14]"] ;
33 -> 39 ;
40 [label="P4 <= 0.5\nentropy = 0.997\nsamples = 15\nvalue = [7, 8]"] ;
39 -> 40 ;
41 [label="entropy = 0.0\nsamples = 3\nvalue = [3, 0]"] ;
40 -> 41 ;
42 [label="M3 <= 0.5\nentropy = 0.918\nsamples = 12\nvalue = [4, 8]"] ;
40 -> 42 ;
43 [label="entropy = 0.991\nsamples = 9\nvalue = [4, 5]"] ;
42 -> 43 ;
44 [label="entropy = 0.0\nsamples = 3\nvalue = [0, 3]"] ;
42 -> 44 ;
45 [label="entropy = 0.0\nsamples = 6\nvalue = [0, 6]"] ;
39 -> 45 ;
46 [label="M4 <= 0.5\nentropy = 0.469\nsamples = 30\nvalue = [3, 27]"] ;
32 -> 46 ;
47 [label="P1 <= 0.5\nentropy = 0.954\nsamples = 8\nvalue = [3, 5]"] ;
46 -> 47 ;
48 [label="M5 <= 0.5\nentropy = 0.811\nsamples = 4\nvalue = [3, 1]"] ;
47 -> 48 ;
49 [label="entropy = 0.0\nsamples = 3\nvalue = [3, 0]"] ;
48 -> 49 ;
50 [label="entropy = 0.0\nsamples = 1\nvalue = [0, 1]"] ;
48 -> 50 ;
51 [label="entropy = 0.0\nsamples = 4\nvalue = [0, 4]"] ;
47 -> 51 ;
52 [label="entropy = 0.0\nsamples = 22\nvalue = [0, 22]"] ;
46 -> 52 ;
}