digraph Tree {
node [shape=box] ;
0 [label="Superfund_right_to_sue <= 0.5\nentropy = 0.991\nsamples = 149\nvalue = [83, 66]"] ;
1 [label="Export_south_africa <= 0.5\nentropy = 0.219\nsamples = 57\nvalue = [55, 2]"] ;
0 -> 1 [labeldistance=2.5, labelangle=45, headlabel="True"] ;
2 [label="entropy = 0.0\nsamples = 1\nvalue = [0, 1]"] ;
1 -> 2 ;
3 [label="Immigration <= 0.5\nentropy = 0.129\nsamples = 56\nvalue = [55, 1]"] ;
1 -> 3 ;
4 [label="entropy = 0.0\nsamples = 46\nvalue = [46, 0]"] ;
3 -> 4 ;
5 [label="Duty_free_exports <= 0.5\nentropy = 0.469\nsamples = 10\nvalue = [9, 1]"] ;
3 -> 5 ;
6 [label="Anti_satellite_test_ban <= 0.5\nentropy = 0.811\nsamples = 4\nvalue = [3, 1]"] ;
5 -> 6 ;
7 [label="entropy = 0.0\nsamples = 1\nvalue = [1, 0]"] ;
6 -> 7 ;
8 [label="entropy = 0.918\nsamples = 3\nvalue = [2, 1]"] ;
6 -> 8 ;
9 [label="entropy = 0.0\nsamples = 6\nvalue = [6, 0]"] ;
5 -> 9 ;
10 [label="Aid_to_nicaraguan_contras <= 0.5\nentropy = 0.887\nsamples = 92\nvalue = [28, 64]"] ;
0 -> 10 [labeldistance=2.5, labelangle=-45, headlabel="False"] ;
11 [label="Export_south_africa <= 0.5\nentropy = 0.687\nsamples = 71\nvalue = [13, 58]"] ;
10 -> 11 ;
12 [label="entropy = 0.0\nsamples = 20\nvalue = [0, 20]"] ;
11 -> 12 ;
13 [label="Duty_free_exports <= 0.5\nentropy = 0.819\nsamples = 51\nvalue = [13, 38]"] ;
11 -> 13 ;
14 [label="Immigration <= 0.5\nentropy = 0.702\nsamples = 42\nvalue = [8, 34]"] ;
13 -> 14 ;
15 [label="Mx_missile <= 0.5\nentropy = 0.94\nsamples = 14\nvalue = [5, 9]"] ;
14 -> 15 ;
16 [label="Anti_satellite_test_ban <= 0.5\nentropy = 0.89\nsamples = 13\nvalue = [4, 9]"] ;
15 -> 16 ;
17 [label="entropy = 0.544\nsamples = 8\nvalue = [1, 7]"] ;
16 -> 17 ;
18 [label="entropy = 0.971\nsamples = 5\nvalue = [3, 2]"] ;
16 -> 18 ;
19 [label="entropy = 0.0\nsamples = 1\nvalue = [1, 0]"] ;
15 -> 19 ;
20 [label="Anti_satellite_test_ban <= 0.5\nentropy = 0.491\nsamples = 28\nvalue = [3, 25]"] ;
14 -> 20 ;
21 [label="Mx_missile <= 0.5\nentropy = 0.592\nsamples = 21\nvalue = [3, 18]"] ;
20 -> 21 ;
22 [label="entropy = 0.469\nsamples = 10\nvalue = [1, 9]"] ;
21 -> 22 ;
23 [label="entropy = 0.684\nsamples = 11\nvalue = [2, 9]"] ;
21 -> 23 ;
24 [label="entropy = 0.0\nsamples = 7\nvalue = [0, 7]"] ;
20 -> 24 ;
25 [label="Anti_satellite_test_ban <= 0.5\nentropy = 0.991\nsamples = 9\nvalue = [5, 4]"] ;
13 -> 25 ;
26 [label="entropy = 0.0\nsamples = 3\nvalue = [3, 0]"] ;
25 -> 26 ;
27 [label="Immigration <= 0.5\nentropy = 0.918\nsamples = 6\nvalue = [2, 4]"] ;
25 -> 27 ;
28 [label="Mx_missile <= 0.5\nentropy = 0.722\nsamples = 5\nvalue = [1, 4]"] ;
27 -> 28 ;
29 [label="entropy = 0.811\nsamples = 4\nvalue = [1, 3]"] ;
28 -> 29 ;
30 [label="entropy = 0.0\nsamples = 1\nvalue = [0, 1]"] ;
28 -> 30 ;
31 [label="entropy = 0.0\nsamples = 1\nvalue = [1, 0]"] ;
27 -> 31 ;
32 [label="Mx_missile <= 0.5\nentropy = 0.863\nsamples = 21\nvalue = [15, 6]"] ;
10 -> 32 ;
33 [label="entropy = 0.0\nsamples = 12\nvalue = [12, 0]"] ;
32 -> 33 ;
34 [label="Anti_satellite_test_ban <= 0.5\nentropy = 0.918\nsamples = 9\nvalue = [3, 6]"] ;
32 -> 34 ;
35 [label="Export_south_africa <= 0.5\nentropy = 0.722\nsamples = 5\nvalue = [1, 4]"] ;
34 -> 35 ;
36 [label="entropy = 0.0\nsamples = 1\nvalue = [0, 1]"] ;
35 -> 36 ;
37 [label="entropy = 0.811\nsamples = 4\nvalue = [1, 3]"] ;
35 -> 37 ;
38 [label="Immigration <= 0.5\nentropy = 1.0\nsamples = 4\nvalue = [2, 2]"] ;
34 -> 38 ;
39 [label="Duty_free_exports <= 0.5\nentropy = 0.918\nsamples = 3\nvalue = [1, 2]"] ;
38 -> 39 ;
40 [label="entropy = 0.0\nsamples = 1\nvalue = [0, 1]"] ;
39 -> 40 ;
41 [label="entropy = 1.0\nsamples = 2\nvalue = [1, 1]"] ;
39 -> 41 ;
42 [label="entropy = 0.0\nsamples = 1\nvalue = [1, 0]"] ;
38 -> 42 ;
}